x_0,x_1,x_2,x_3,x_4,x_5,x_6,x_7,x_8,x_9,x_10,x_11,x_12,x_13,x_14,x_15,x_16,x_17,x_18,x_19,x_20,x_21,x_22,x_23,x_24,x_25,x_26,x_27,x_28,x_29,x_30,x_31,x_32,x_33,x_34,x_35,x_36,x_37,x_38,x_39,x_40,x_41,x_42,x_43,x_44,x_45,x_46,x_47,x_48,x_49,x_50,x_51,x_52,x_53,x_54,x_55,x_56,x_57,x_58,x_59,x_60,x_61,x_62,x_63,x_64,x_65,x_66,x_67,x_68,x_69,x_70,x_71,x_72,x_73,x_74,x_75,x_76,x_77,x_78,x_79,x_80,x_81,x_82,x_83,x_84,x_85,x_86,x_87,x_88,x_89,x_90,x_91,x_92,x_93,x_94,x_95,x_96,x_97,x_98,x_99,x_100,x_101,x_102,x_103,x_104,x_105,x_106,x_107,x_108,x_109,x_110,x_111,x_112,x_113,x_114,x_115,x_116,x_117,x_118,x_119,x_120,x_121,x_122,x_123,x_124,x_125,x_126,x_127
-0.020520443,0.00019514156,0.12477729,0.07132892,-0.08300488,0.08257565,0.05559449,0.33434886,0.21764061,0.13621859,0.058917154,0.06476942,0.10558852,-0.13909352,0.03582654,0.27211136,-0.31632224,0.09914497,-0.17469718,-0.03400818,0.15173076,-0.14220186,-0.5419658,0.3220318,0.2503746,-0.07707697,0.31496477,0.23452781,-0.066999525,0.26201233,-0.09567235,-0.04818622,0.10780147,-0.080417454,-0.23729382,-0.065667465,-0.07368301,-0.0609984,0.14935488,0.05511202,0.039106064,-0.18411037,-0.11903056,0.31339476,-0.07601625,0.08599451,-0.09844841,0.2880994,-0.2353891,-0.33512384,0.41592732,-0.2344833,-0.009956992,0.17188947,0.25753617,0.14074576,0.24550474,-0.015601716,0.08139075,-0.19800839,-0.088677354,-0.088325575,-0.10546552,-0.21808779,-0.24398611,0.07627323,-0.13468114,0.090725146,-0.111616254,0.36671096,0.022862365,-0.08097761,0.28530964,0.07742226,0.03588883,0.18809094,-0.15188709,-0.0070135146,0.28146595,0.062127754,0.03614033,0.08156349,-0.2423783,0.21912739,-0.28922033,-0.04679792,0.16495644,-0.024843058,0.26841897,-0.02352176,0.035523117,-0.065844364,-0.16489787,0.012438738,0.050952174,-0.05851875,-0.19606951,0.32231933,-0.1551173,0.2378363,0.058214497,-0.04134282,-0.15321933,0.20820853,-0.3040963,0.18067311,0.049158346,-0.24120758,0.12488306,0.15462685,0.13937488,-0.01699747,-0.112607226,0.25334024,-0.19707468,0.101100795,-0.08663948,0.2634174,-0.3792175,-0.22728235,-0.15866159,-0.21679828,-0.11182131,0.3505494,-0.03550901,-0.1732662,0.05714032,-0.16631447
0.2293148,0.045236487,-0.21987385,-0.1363338,0.34246042,7.046066e-05,0.13249426,-0.09700404,0.13771865,-0.113552436,-0.18539712,0.08691978,0.025234805,0.20625982,0.008789421,0.14463677,0.091893144,-0.073254816,-0.02925913,-0.16925418,0.03976767,0.0034185015,-0.02245292,0.08842809,-0.13368513,0.047376946,0.079821825,-0.11494888,-0.049453106,0.29868603,-0.07543349,0.29077962,0.10060618,-0.1606835,-0.061514493,-0.13358064,0.08783871,-0.05454492,-0.031296525,-0.22966044,0.12801018,-0.11866615,-0.09413035,-0.034576595,0.027959306,-0.011786298,-0.1849705,0.20305085,-0.06933875,0.19137242,-0.11091348,-0.017774863,-0.10742008,0.16364893,-0.05600022,0.25997853,-0.052651,-0.100441284,0.03772198,-0.1122499,0.26441103,-0.024511468,0.092338726,0.038677596,-0.3365803,-0.16104075,0.16100718,-0.039386585,-0.04737056,-0.03584239,-0.013920885,-0.03977058,-0.10980688,0.21923594,0.26274517,0.064410396,0.022054829,0.26641357,0.14597142,-0.1616455,0.08463695,-0.13081013,0.0032555975,-0.0887383,-0.09221017,0.15931086,0.01544403,0.34980556,-0.12205774,0.068610825,0.020718018,0.13421938,-0.29377252,-0.3603695,-0.08549112,-0.08785376,-0.16503468,0.18887168,-0.074195,-0.027112255,0.24738616,0.12580824,-0.28022006,0.027892098,0.21168952,-0.28170693,-0.05932168,-0.009539226,0.01932175,0.29348105,-0.24316715,0.16732776,-0.06478227,-0.011222454,-0.052462365,0.25497475,0.082329296,-0.049166746,0.20501599,-0.070206515,0.10273497,0.046788104,0.36516404,0.090166084,0.04536772,0.209207,0.010498799,0.0055706343
-0.070975386,-0.004685261,0.014043522,-0.11462064,-0.08781231,0.13856593,-0.0017444723,0.05903097,-0.094828844,0.17485017,-0.08803757,0.15705268,0.1262426,0.09521108,0.21699655,-0.45533112,-0.031460557,0.16955565,-0.09229643,-0.3893134,-0.3006464,0.24117583,0.42665544,-0.0061211474,-0.1344144,0.025445217,0.003405282,0.19154526,0.031333964,-0.098666124,-0.04972516,-0.20567387,-0.0615598,0.27131405,-0.21647152,-0.4148985,-0.23016255,-0.04613703,-0.008110475,-0.22460791,0.041651916,-0.22330055,0.3825141,-0.06374927,0.40689203,-0.102412276,-0.051690247,-0.2544597,0.16849005,0.26562706,-0.0033384936,0.06646279,-0.24097979,0.018747617,0.10125844,0.16624461,-0.21298167,0.015078151,-0.38305005,-0.016374523,0.07168639,0.18243,-0.1487508,0.0232745,-0.22154947,0.065059625,0.07157168,0.0777912,-0.18520935,-0.14905965,0.2068061,0.032390445,0.03806355,-0.3586265,0.1551411,-0.33054498,0.282142,0.059628606,0.19186914,0.21497872,0.028138975,-0.028327333,-0.027278012,-0.10729074,0.21203384,-0.0853035,-0.09226107,0.24512227,0.09505978,-0.10334223,-0.0392415,0.32043356,0.5727829,-0.04631917,-0.14037482,0.22526895,0.15597977,0.10247316,0.012624433,-0.11692322,-0.10088879,-0.09224919,0.3162063,0.08700834,0.26361,-0.059633646,0.43791848,0.047514107,-0.1353162,-0.016839603,-0.13407926,0.12001223,-0.062292214,0.1365996,-0.3394827,0.18300727,0.30764857,-0.20341544,-0.13552764,0.1712483,-0.14477344,-0.012817617,-0.2858642,-0.18203977,-0.010702705,-0.24575941,-0.018947603,-0.00047859747
0.18148173,-0.0605945,-0.18456508,0.20557746,0.07047486,0.037049774,-0.08144624,-0.06289165,-0.11228917,-0.13655931,0.09518054,0.17827791,0.4397695,-0.16191438,0.015730178,-0.03953055,0.052878316,0.29475138,0.10289208,-0.075547084,-0.04342169,-0.22180204,-0.048827443,-0.39327675,0.10706119,0.099564984,-0.36924893,0.011685322,0.01005589,-0.11490075,-0.11273714,-0.10344922,-0.14912592,-0.048660778,-0.260543,-0.14187695,-0.05042101,-0.096544586,-0.0479213,0.13545337,0.053378515,0.014230608,-0.081608705,0.022258684,-0.04532177,-0.07384454,-0.15716927,0.10865236,-0.10130692,-0.16975328,-0.20833638,-0.16440584,0.1526499,-0.28312287,0.11426181,-0.08145912,-0.07669005,0.47115588,-0.16263789,0.407433,-0.05826622,0.039507803,0.019797543,-0.008600538,0.31677198,0.055507362,0.02864165,-0.08743609,-0.0054931757,-0.08390374,0.0486857,0.09715315,-0.098239586,-0.097567916,-0.17501086,0.2681434,-0.066484004,0.06483613,-0.32120034,-0.096920736,-0.27338672,0.030227808,0.007806872,0.11664849,0.10017036,0.22505327,-0.058383662,-0.13056216,-0.11995446,-0.00391763,-0.13579988,0.17739831,-0.10099386,0.24485376,0.40437993,0.027201703,-0.12289553,-0.17886768,-0.15889086,0.011186624,0.22663178,-0.17930728,-0.106557295,-0.034491494,-0.010686936,0.084209,-0.212916,0.053312063,0.14095728,0.07586041,0.031001313,-0.096059285,0.40889835,-0.060366485,0.32474214,-0.16441724,0.027086994,0.04569476,-0.021741277,-0.09899592,0.044322327,-0.0056415745,-0.15681814,-0.22996221,0.090280615,-0.119849265,-0.27183583,0.119376324
